\data\
ngram 1=37
ngram 2=358
ngram 3=857

\1-grams:
-2.4618256	<unk>	0
0	<s>	-2.2218487
-1.1605515	</s>	0
-2.3143055	jump	-0.30103
-1.1971669	gingival	-1.1856365
-2.3143055	margin	-0.30103
-1.1267848	mesial	-1.0791812
-1.4488461	thirty	-0.52827376
-1.6653603	one	-0.39120662
-2.3143055	plaque	-0.30103
-2.3143055	medium	-0.30103
-1.2167011	twenty	-0.6452851
-1.5654975	six	-0.36469907
-1.1267848	all	-1.0910804
-1.7952656	four	-0.3521825
-1.1433401	distal	-1.0543576
-1.6653603	seventeen	-0.3290587
-2.3143055	furcation	-0.30103
-1.2371558	grade	-0.5213249
-1.523036	eight	-0.43933266
-1.6125648	two	-0.41218045
-1.6125648	eleven	-0.3521825
-1.8784611	fifteen	-0.3357921
-1.6125648	eighteen	-0.38818017
-1.523036	three	-0.40748534
-1.6125648	twelve	-0.38535088
-1.7254738	nine	-0.41497335
-2.3143055	bleeding	-0.30103
-1.523036	five	-0.39794
-2.3143055	light	-0.30103
-1.5654975	seven	-0.40248764
-2.3143055	severe	-0.30103
-1.523036	ten	-0.44235915
-1.5654975	sixteen	-0.40576535
-1.7254738	fourteen	-0.37358066
-1.6653603	nineteen	-0.39794
-1.7254738	thirteen	-0.32735893

\2-grams:
-0.54584503	margin </s>	0
-0.16347745	mesial </s>	0
-1.1190251	thirty </s>	0
-0.8618712	one </s>	0
-1.2800106	twenty </s>	0
-0.8432299	six </s>	0
-0.19331992	all </s>	0
-0.94293386	four </s>	0
-0.15659706	distal </s>	0
-1.0227869	seventeen </s>	0
-0.8577297	eight </s>	0
-0.76470435	two </s>	0
-0.6475214	eleven </s>	0
-1.1527256	fifteen </s>	0
-0.5555395	eighteen </s>	0
-0.74663484	three </s>	0
-0.6301659	twelve </s>	0
-1.0743403	nine </s>	0
-0.6061825	five </s>	0
-0.8810185	seven </s>	0
-0.48081982	ten </s>	0
-0.55729365	sixteen </s>	0
-0.6545472	fourteen </s>	0
-0.583407	nineteen </s>	0
-1.039344	thirteen </s>	0
-0.28859007	<s> jump	-1.1225438
-1.2860532	jump gingival	-1.9508489
-1.4278733	thirty gingival	-0.43100095
-1.1386125	one gingival	-0.4098941
-1.2252487	medium gingival	-1.0119541
-1.706943	twenty gingival	-0.18848692
-1.1373991	six gingival	-0.28495535
-1.2517821	four gingival	-0.18848692
-1.21453	seventeen gingival	-0.43100095
-1.279116	furcation gingival	-1.3876177
-1.1640013	eight gingival	-0.4098941
-1.2453301	two gingival	-0.43100095
-1.2517821	eleven gingival	-0.18848692
-1.1653919	three gingival	-0.43100095
-1.2014325	nine gingival	-0.5068041
-1.2552075	bleeding gingival	-1.4512868
-1.3429109	five gingival	-0.4098941
-1.2134892	light gingival	-0.88701534
-1.1751876	seven gingival	-0.4098941
-1.2006295	severe gingival	-0.88701534
-1.2170681	sixteen gingival	-0.18848692
-1.1848834	fourteen gingival	-0.43100095
-1.2310897	nineteen gingival	-0.18848692
-1.2269584	thirteen gingival	-0.18848692
-0.02914246	gingival margin	-1.9853706
-1.2415352	jump mesial	-1.3641366
-1.2279351	thirty mesial	-0.43100095
-0.9647123	one mesial	-0.5481968
-1.1862942	medium mesial	-0.58598536
-1.4855697	twenty mesial	-0.4098941
-0.99813306	six mesial	-0.55978626
-1.0518439	four mesial	-0.43100095
-0.7183824	seventeen mesial	-0.4098941
-1.2352691	furcation mesial	-1.0631067
-0.85141766	eight mesial	-0.58598536
-0.7592751	two mesial	-0.8427851
-0.93357986	eleven mesial	-0.4098941
-0.64440244	fifteen mesial	-0.43484753
-1.2734444	eighteen mesial	-0.43100095
-0.7413693	three mesial	-0.4837632
-0.9245018	twelve mesial	-0.35566625
-1.1727256	nine mesial	-0.35566625
-1.2136003	bleeding mesial	-0.7620766
-1.0463719	five mesial	-0.7620766
-1.1755311	light mesial	-0.28495535
-1.1473478	seven mesial	-0.5068041
-1.1637332	severe mesial	-0.5068041
-0.9574174	ten mesial	-0.43100095
-0.9966779	sixteen mesial	-0.4098941
-1.154544	fourteen mesial	-0.43100095
-1.1992412	nineteen mesial	-0.18848692
-1.0270202	thirteen mesial	-0.18848692
-1.4226476	jump thirty	-0.65571725
-1.3413625	medium thirty	-0.29303163
-1.3194277	seventeen thirty	-0.18848692
-1.4131742	furcation thirty	-0.37589073
-1.4248965	grade thirty	-0.30894396
-1.360621	eleven thirty	-0.18848692
-1.4285126	eighteen thirty	-0.18848692
-1.380934	bleeding thirty	-0.35566625
-1.4655894	five thirty	-0.18848692
-1.3260614	light thirty	-0.43100095
-1.3094684	severe thirty	-0.28495535
-1.3912113	ten thirty	-0.18848692
-1.3357974	thirteen thirty	-0.18848692
-1.5113841	jump one	-0.30894396
-0.49320078	thirty one	-0.45695373
-1.4136107	medium one	-0.18848692
-1.0251927	twenty one	-0.43026906
-1.4940562	six one	-0.18848692
-1.4997915	furcation one	-0.30894396
-1.4764131	grade one	-0.23762105
-1.4607463	bleeding one	-0.25875625
-0.7890689	<s> plaque	-1.5455568
-0.7718785	plaque medium	-0.5458746
-1.2979342	jump twenty	-0.60955465
-1.1454473	one twenty	-0.18848692
-1.2355587	medium twenty	-0.27335447
-1.7211548	twenty twenty	-0.18848692
-1.1446471	six twenty	-0.18848692
-1.2615175	four twenty	-0.18848692
-1.2239505	seventeen twenty	-0.18848692
-1.290806	furcation twenty	-0.37808114
-0.7589671	grade twenty	-0.55072635
-1.253671	two twenty	-0.23762105
-1.2615175	eleven twenty	-0.18848692
-1.1772827	fifteen twenty	-0.18848692
-1.322709	eighteen twenty	-0.18848692
-1.2643036	twelve twenty	-0.18848692
-1.2089158	nine twenty	-0.18848692
-1.2662635	bleeding twenty	-0.32397482
-1.353732	five twenty	-0.18848692
-1.2235206	light twenty	-0.22220193
-1.3480778	seven twenty	-0.18848692
-1.210365	severe twenty	-0.28009287
-1.2394305	nineteen twenty	-0.18848692
-1.236694	thirteen twenty	-0.18848692
-1.4736876	jump six	-0.33763516
-1.3832546	medium six	-0.18848692
-1.2714573	twenty six	-0.5034412
-1.4630471	furcation six	-0.18848692
-1.7226044	grade six	-0.29303163
-1.427042	bleeding six	-0.18848692
-1.3664337	light six	-0.18848692
-1.5003356	seven six	-0.18848692
-1.3482577	severe six	-0.18848692
-1.3745866	thirteen six	-0.18848692
-1.2415352	jump all	-1.3988987
-1.390977	thirty all	-0.18848692
-1.1123011	one all	-0.65293217
-1.1862942	medium all	-0.65293217
-1.2696717	twenty all	-0.35566625
-0.99813306	six all	-0.7109241
-0.76426744	four all	-0.43484753
-0.89022875	seventeen all	-0.5068041
-1.2352691	furcation all	-0.9839254
-1.1389941	eight all	-0.4098941
-1.1118418	two all	-0.7109241
-1.0518439	eleven all	-0.33433542
-0.8243341	fifteen all	-0.43100095
-1.0055355	eighteen all	-0.4098941
-1.0248407	three all	-0.35190216
-0.7500434	twelve all	-0.25875625
-0.6950773	nine all	-0.6109388
-1.2136003	bleeding all	-0.95396215
-0.88648194	five all	-0.7620766
-1.1755311	light all	-0.5068041
-0.755983	seven all	-0.5017943
-1.1637332	severe all	-0.28495535
-0.7802653	ten all	-0.4098941
-1.1867287	sixteen all	-0.18848692
-1.154544	fourteen all	-0.18848692
-0.70655036	nineteen all	-0.25875625
-1.0270202	thirteen all	-0.25875625
-1.5526663	jump four	-0.30894396
-1.3928852	twenty four	-0.3532277
-1.5399345	furcation four	-0.29303163
-1.6787527	grade four	-0.33433542
-1.4268603	light four	-0.18848692
-1.3766587	sixteen four	-0.18848692
-1.2522442	jump distal	-1.4206179
-0.7699863	one distal	-0.65293217
-1.1957102	medium distal	-0.58598536
-1.4940501	twenty distal	-0.28495535
-0.7209409	six distal	-0.55978626
-0.76741207	four distal	-0.65669626
-1.016835	seventeen distal	-0.5068041
-1.2458228	furcation distal	-0.9217775
-0.55886865	eight distal	-0.7109241
-0.96467835	two distal	-0.6109388
-1.0579621	eleven distal	-0.33763516
-0.82808656	fifteen distal	-0.43484753
-1.0105911	eighteen distal	-0.28495535
-0.8638315	three distal	-0.65293217
-1.2290528	twelve distal	-0.28495535
-0.69739556	nine distal	-0.5017943
-1.2236344	bleeding distal	-1.0119541
-1.051805	five distal	-0.4098941
-1.1847142	light distal	-0.4098941
-0.75872946	seven distal	-0.8492268
-1.1726677	severe distal	-0.65293217
-1.0887607	ten distal	-0.28495535
-0.6844214	sixteen distal	-0.4098941
-0.6522367	fourteen distal	-0.35566625
-1.206987	nineteen distal	-0.18848692
-0.74258846	thirteen distal	-0.4098941
-1.5113841	jump seventeen	-0.38794982
-1.4136107	medium seventeen	-0.33433542
-1.4997915	furcation seventeen	-0.18848692
-1.3551636	grade seventeen	-0.31025457
-1.4273388	eleven seventeen	-0.18848692
-1.5429709	five seventeen	-0.18848692
-1.3955969	light seventeen	-0.43100095
-1.5318449	seven seventeen	-0.18848692
-0.77075577	<s> furcation	-0.76101786
-0.5544565	margin grade	-0.46566373
-0.6180948	mesial grade	-0.4062421
-1.4475676	thirty grade	-0.18848692
-1.1523912	one grade	-0.3521238
-1.7358472	twenty grade	-0.18848692
-1.3211259	six grade	-0.18848692
-0.539884	all grade	-0.32294458
-1.0899163	four grade	-0.18848692
-0.64647037	distal grade	-0.4242789
-1.2335799	seventeen grade	-0.18848692
-1.3586265	eight grade	-0.18848692
-1.2621753	two grade	-0.33433542
-1.2714763	eleven grade	-0.24376336
-1.3332698	eighteen grade	-0.18848692
-1.1795133	three grade	-0.18848692
-1.381863	nine grade	-0.18848692
-1.1994971	five grade	-0.24376336
-1.3589145	seven grade	-0.18848692
-1.3125237	ten grade	-0.18848692
-1.2479348	nineteen grade	-0.18848692
-1.2466527	thirteen grade	-0.18848692
-1.4559994	jump eight	-0.48584664
-1.5558289	one eight	-0.18848692
-1.3688369	medium eight	-0.18848692
-1.016551	twenty eight	-0.48503518
-1.4457786	furcation eight	-0.18848692
-1.7037369	grade eight	-0.33433542
-1.5569291	two eight	-0.18848692
-1.5119424	nine eight	-0.18848692
-1.4111224	bleeding eight	-0.29303163
-1.494909	five eight	-0.18848692
-1.3349392	severe eight	-0.18848692
-1.492127	jump two	-0.38822868
-0.67585325	thirty two	-0.52588785
-1.5928041	one two	-0.18848692
-1.2766174	twenty two	-0.48967564
-1.4810308	furcation two	-0.18848692
-1.4656093	grade two	-0.18848692
-1.4853177	eighteen two	-0.18848692
-1.4435673	bleeding two	-0.33433542
-1.3619975	severe two	-0.33433542
-1.492127	jump eleven	-0.4257384
-1.3981675	medium eleven	-0.43100095
-1.4810308	furcation eleven	-0.43388268
-1.4656093	grade eleven	-0.18848692
-1.4853177	eighteen eleven	-0.18848692
-1.5433855	nine eleven	-0.18848692
-1.4435673	bleeding eleven	-0.18848692
-1.3807706	light eleven	-0.18848692
-1.3883264	thirteen eleven	-0.18848692
-1.5748787	jump fifteen	-0.35346657
-2.0831687	twenty fifteen	-0.18848692
-1.5614891	furcation fifteen	-0.29303163
-1.3807247	grade fifteen	-0.28955197
-1.5167807	bleeding fifteen	-0.18848692
-1.492127	jump eighteen	-0.38691553
-1.5892413	thirty eighteen	-0.18848692
-1.5928041	one eighteen	-0.18848692
-1.3981675	medium eighteen	-0.18848692
-1.4810308	furcation eighteen	-0.18848692
-1.1121607	grade eighteen	-0.18848692
-1.4435673	bleeding eighteen	-0.25875625
-1.3807706	light eighteen	-0.18848692
-1.3619975	severe eighteen	-0.18848692
-1.4559994	jump three	-0.35190216
-1.3688369	medium three	-0.18848692
-1.016551	twenty three	-0.45849293
-1.4457786	furcation three	-0.30894396
-1.8414767	grade three	-0.18848692
-1.473242	eight three	-0.18848692
-1.281476	fifteen three	-0.18848692
-1.4559871	eighteen three	-0.18848692
-1.4111224	bleeding three	-0.18848692
-1.4853988	seven three	-0.18848692
-1.3349392	severe three	-0.18848692
-1.492127	jump twelve	-0.30894396
-1.5928041	one twelve	-0.18848692
-1.3981675	medium twelve	-0.18848692
-1.4131501	four twelve	-0.18848692
-1.4810308	furcation twelve	-0.18848692
-1.4656093	grade twelve	-0.3565603
-1.5921813	two twelve	-0.18848692
-1.5046228	three twelve	-0.18848692
-1.3117075	fourteen twelve	-0.18848692
-1.5315349	jump nine	-0.58618605
-1.4296234	medium nine	-0.18848692
-1.0798469	twenty nine	-0.46564323
-1.5193994	furcation nine	-0.18848692
-1.2671874	grade nine	-0.22220193
-1.478633	bleeding nine	-0.28955197
-1.4109473	light nine	-0.18848692
-0.8311223	<s> bleeding	-0.7481814
-1.4559994	jump five	-0.47469747
-1.016551	twenty five	-0.4667351
-1.4457786	furcation five	-0.43100095
-1.3310237	grade five	-0.32294458
-1.473242	eight five	-0.18848692
-1.379237	twelve five	-0.18848692
-1.4111224	bleeding five	-0.43100095
-1.352555	light five	-0.18848692
-1.4853988	seven five	-0.18848692
-1.3349392	severe five	-0.18848692
-1.343624	nineteen five	-0.18848692
-0.7718785	plaque light	-0.47898453
-1.4736876	jump seven	-0.3007996
-1.3832546	medium seven	-0.18848692
-1.0700592	twenty seven	-0.44456828
-1.4630471	furcation seven	-0.25875625
-1.7226044	grade seven	-0.18848692
-1.5741976	two seven	-0.18848692
-1.4704049	eighteen seven	-0.18848692
-1.5273794	nine seven	-0.18848692
-1.427042	bleeding seven	-0.18848692
-1.3482577	severe seven	-0.18848692
-0.7718785	plaque severe	-0.49016336
-1.4559994	jump ten	-0.39869642
-1.4476101	six ten	-0.18848692
-1.3438308	seventeen ten	-0.18848692
-1.4457786	furcation ten	-0.33433542
-1.8414767	grade ten	-0.18848692
-1.5569291	two ten	-0.18848692
-1.379237	twelve ten	-0.18848692
-1.4111224	bleeding ten	-0.18848692
-1.494909	five ten	-0.18848692
-1.352555	light ten	-0.18848692
-1.3349392	severe ten	-0.18848692
-1.4736876	jump sixteen	-0.42469347
-1.6140895	grade sixteen	-0.18848692
-1.3994102	eleven sixteen	-0.18848692
-1.4704049	eighteen sixteen	-0.18848692
-1.48971	three sixteen	-0.18848692
-1.427042	bleeding sixteen	-0.28495535
-1.3664337	light sixteen	-0.18848692
-1.3482577	severe sixteen	-0.18848692
-1.3013127	fourteen sixteen	-0.18848692
-1.3745866	thirteen sixteen	-0.18848692
-1.5315349	jump fourteen	-0.37046254
-1.618098	thirty fourteen	-0.18848692
-1.6332226	one fourteen	-0.18848692
-1.5193994	furcation fourteen	-0.18848692
-1.2671874	grade fourteen	-0.33433542
-1.42993	twelve fourteen	-0.18848692
-1.478633	bleeding fourteen	-0.18848692
-1.5113841	jump nineteen	-0.24376336
-1.4136107	medium nineteen	-0.18848692
-1.4997915	furcation nineteen	-0.18848692
-1.6452187	grade nineteen	-0.18848692
-1.610942	two nineteen	-0.18848692
-1.4607463	bleeding nineteen	-0.33433542
-1.3955969	light nineteen	-0.18848692
-1.3761863	severe nineteen	-0.18848692
-1.5315349	jump thirteen	-0.37893596
-1.4296234	medium thirteen	-0.18848692
-1.5193994	furcation thirteen	-0.18848692
-1.3635179	grade thirteen	-0.18848692
-1.6305499	two thirteen	-0.18848692
-1.5772842	nine thirteen	-0.18848692
-1.4109473	light thirteen	-0.18848692

\3-grams:
-0.05971971	gingival margin </s>
-0.0059307152	jump mesial </s>
-0.053683978	thirty mesial </s>
-0.10790455	one mesial </s>
-0.03686343	medium mesial </s>
-0.056539085	twenty mesial </s>
-0.060705684	six mesial </s>
-0.053683978	four mesial </s>
-0.056539085	seventeen mesial </s>
-0.03686343	eight mesial </s>
-0.05735547	two mesial </s>
-0.056539085	eleven mesial </s>
-0.082985245	fifteen mesial </s>
-0.053683978	eighteen mesial </s>
-0.14434819	three mesial </s>
-0.10167026	twelve mesial </s>
-0.10167026	nine mesial </s>
-0.024224747	bleeding mesial </s>
-0.024224747	five mesial </s>
-0.07714862	light mesial </s>
-0.044627067	seven mesial </s>
-0.044627067	severe mesial </s>
-0.24483988	ten mesial </s>
-0.056539085	sixteen mesial </s>
-0.053683978	fourteen mesial </s>
-0.098672405	nineteen mesial </s>
-0.2071085	thirteen mesial </s>
-0.96941733	jump thirty </s>
-0.89707327	medium thirty </s>
-0.9832222	bleeding thirty </s>
-0.51137197	jump one </s>
-0.58946615	thirty one </s>
-0.62676173	twenty one </s>
-0.3554196	six one </s>
-0.3599081	bleeding one </s>
-1.3159848	jump twenty </s>
-0.9135514	one twenty </s>
-0.4133067	twenty twenty </s>
-1.3716722	bleeding twenty </s>
-0.77628446	severe twenty </s>
-0.52045	twenty six </s>
-0.3515916	light six </s>
-0.3515916	seven six </s>
-0.3515916	severe six </s>
-0.0062723616	jump all </s>
-0.11507384	thirty all </s>
-0.036159158	one all </s>
-0.036159158	medium all </s>
-0.11284144	twenty all </s>
-0.03147115	six all </s>
-0.09187929	four all </s>
-0.051510137	seventeen all </s>
-0.065402284	eight all </s>
-0.03147115	two all </s>
-0.14492612	eleven all </s>
-0.25792834	fifteen all </s>
-0.065402284	eighteen all </s>
-0.30877545	three all </s>
-0.14631318	twelve all </s>
-0.05904517	nine all </s>
-0.017703377	bleeding all </s>
-0.02785961	five all </s>
-0.051510137	light all </s>
-0.077502534	seven all </s>
-0.08959151	severe all </s>
-0.065402284	ten all </s>
-0.11507384	sixteen all </s>
-0.14631318	nineteen all </s>
-0.14631318	thirteen all </s>
-0.5278803	jump four </s>
-0.8514632	twenty four </s>
-0.3706095	light four </s>
-0.005020237	jump distal </s>
-0.12024347	one distal </s>
-0.035521336	medium distal </s>
-0.074208915	twenty distal </s>
-0.059199974	six distal </s>
-0.04669677	four distal </s>
-0.04298807	seventeen distal </s>
-0.026364941	eight distal </s>
-0.05220935	two distal </s>
-0.21528038	eleven distal </s>
-0.08087342	fifteen distal </s>
-0.074208915	eighteen distal </s>
-0.030265529	three distal </s>
-0.074208915	twelve distal </s>
-0.06835646	nine distal </s>
-0.01298246	bleeding distal </s>
-0.05443447	five distal </s>
-0.05443447	light distal </s>
-0.019014325	seven distal </s>
-0.030265529	severe distal </s>
-0.074208915	ten distal </s>
-0.05443447	sixteen distal </s>
-0.099026255	fourteen distal </s>
-0.09481906	nineteen distal </s>
-0.05443447	thirteen distal </s>
-0.45360714	jump seventeen </s>
-0.333961	medium seventeen </s>
-0.26745176	jump eight </s>
-0.33824107	twenty eight </s>
-0.7994404	bleeding eight </s>
-0.3545804	five eight </s>
-0.47469848	jump two </s>
-0.41010192	thirty two </s>
-0.33397576	one two </s>
-0.68743205	twenty two </s>
-0.30176425	bleeding two </s>
-0.70559376	severe two </s>
-0.34221393	jump eleven </s>
-0.30279592	eighteen eleven </s>
-0.30279592	bleeding eleven </s>
-0.30279592	light eleven </s>
-0.30279592	thirteen eleven </s>
-0.4973975	jump fifteen </s>
-0.53169125	jump eighteen </s>
-0.44813907	thirty eighteen </s>
-0.27377564	one eighteen </s>
-0.27377564	medium eighteen </s>
-0.28885335	bleeding eighteen </s>
-0.27377564	light eighteen </s>
-0.27377564	severe eighteen </s>
-0.36778197	jump three </s>
-0.32519445	twenty three </s>
-0.32956424	eighteen three </s>
-0.63175696	bleeding three </s>
-0.32956424	seven three </s>
-0.48429492	medium twelve </s>
-0.2976395	four twelve </s>
-0.2976395	two twelve </s>
-0.2976395	three twelve </s>
-0.2976395	fourteen twelve </s>
-0.15581653	jump nine </s>
-0.41647148	twenty nine </s>
-1.028905	bleeding nine </s>
-0.31250933	jump five </s>
-0.5021491	twenty five </s>
-0.29027307	eight five </s>
-0.14199573	bleeding five </s>
-0.47302422	light five </s>
-0.29027307	seven five </s>
-0.29027307	severe five </s>
-0.64555436	jump seven </s>
-0.61898553	twenty seven </s>
-0.35921738	nine seven </s>
-0.5829321	severe seven </s>
-0.2885496	jump ten </s>
-0.247007	seventeen ten </s>
-0.4087306	twelve ten </s>
-0.4087306	bleeding ten </s>
-0.247007	five ten </s>
-0.4087306	light ten </s>
-0.247007	severe ten </s>
-0.26076093	jump sixteen </s>
-0.27436888	eighteen sixteen </s>
-0.27436888	three sixteen </s>
-0.20415884	bleeding sixteen </s>
-0.27436888	severe sixteen </s>
-0.46075827	jump fourteen </s>
-0.30484238	thirty fourteen </s>
-0.30484238	twelve fourteen </s>
-0.30484238	bleeding fourteen </s>
-0.35895672	jump nineteen </s>
-0.28301412	medium nineteen </s>
-0.28301412	two nineteen </s>
-0.26728484	bleeding nineteen </s>
-0.28301412	light nineteen </s>
-0.3759508	jump thirteen </s>
-0.3858713	medium thirteen </s>
-0.5682082	<s> jump gingival
-0.90932745	grade thirty gingival
-1.4098425	thirty one gingival
-1.3803301	twenty one gingival
-0.7003183	grade one gingival
-0.6150782	plaque medium gingival
-1.93958	grade twenty gingival
-1.1787107	twenty six gingival
-0.9026045	grade six gingival
-1.3294151	twenty four gingival
-0.67845464	grade seventeen gingival
-0.653184	<s> furcation gingival
-1.0345095	twenty eight gingival
-0.34554347	grade eight gingival
-1.4721661	twenty two gingival
-1.019949	grade two gingival
-0.9718201	grade eleven gingival
-1.4080113	twenty three gingival
-0.40190625	grade three gingival
-1.0890592	twenty nine gingival
-0.66128045	grade nine gingival
-0.53050554	<s> bleeding gingival
-0.36772028	grade five gingival
-0.6236547	plaque light gingival
-1.0616801	twenty seven gingival
-0.88171244	grade seven gingival
-0.6551844	plaque severe gingival
-0.80501723	grade sixteen gingival
-0.6197395	grade fourteen gingival
-0.89935684	grade nineteen gingival
-1.051985	grade thirteen gingival
-0.00031576827	jump gingival margin
-0.010575772	thirty gingival margin
-0.011109261	one gingival margin
-0.002750794	medium gingival margin
-0.018657135	twenty gingival margin
-0.01487639	six gingival margin
-0.018657135	four gingival margin
-0.010575772	seventeen gingival margin
-0.0011561033	furcation gingival margin
-0.011109261	eight gingival margin
-0.010575772	two gingival margin
-0.018657135	eleven gingival margin
-0.010575772	three gingival margin
-0.008864553	nine gingival margin
-0.000998274	bleeding gingival margin
-0.011109261	five gingival margin
-0.0036716107	light gingival margin
-0.011109261	seven gingival margin
-0.0036716107	severe gingival margin
-0.018657135	sixteen gingival margin
-0.010575772	fourteen gingival margin
-0.018657135	nineteen gingival margin
-0.018657135	thirteen gingival margin
-1.1482818	<s> jump mesial
-1.5831494	jump thirty mesial
-1.2336664	grade thirty mesial
-0.87991387	thirty one mesial
-0.73577243	twenty one mesial
-0.951034	furcation one mesial
-0.97155404	grade one mesial
-1.0557303	plaque medium mesial
-1.5804718	jump twenty mesial
-0.8584092	fifteen twenty mesial
-1.24969	severe twenty mesial
-0.475157	jump six mesial
-0.93642306	twenty six mesial
-0.61777383	furcation six mesial
-1.212155	twenty four mesial
-0.38764793	sixteen four mesial
-0.9574581	jump seventeen mesial
-0.32238454	eleven seventeen mesial
-0.32238454	five seventeen mesial
-0.32238454	seven seventeen mesial
-0.97368604	<s> furcation mesial
-1.1078717	jump eight mesial
-0.8986834	twenty eight mesial
-0.7966181	bleeding eight mesial
-0.35328904	severe eight mesial
-1.0075053	jump two mesial
-0.72216594	thirty two mesial
-0.60281944	twenty two mesial
-0.33266482	furcation two mesial
-0.7033913	bleeding two mesial
-0.3008938	severe two mesial
-1.1363132	jump eleven mesial
-0.1722989	medium eleven mesial
-0.36897245	nine eleven mesial
-0.6560431	jump fifteen mesial
-0.3018799	twenty fifteen mesial
-0.6913954	furcation fifteen mesial
-0.77800256	grade fifteen mesial
-0.69536895	jump eighteen mesial
-0.90006393	twenty three mesial
-0.8304934	furcation three mesial
-0.32825246	fifteen three mesial
-0.6291303	bleeding three mesial
-0.32825246	severe three mesial
-0.5715536	jump twelve mesial
-0.5966418	furcation twelve mesial
-0.67843765	grade twelve mesial
-0.85589564	twenty nine mesial
-1.071649	bleeding nine mesial
-1.2155548	<s> bleeding mesial
-0.8399907	jump five mesial
-0.72267294	twenty five mesial
-0.3868756	twelve five mesial
-1.2821023	plaque light mesial
-1.1263633	jump seven mesial
-0.8799946	twenty seven mesial
-1.0535121	plaque severe mesial
-1.0800579	jump ten mesial
-0.32732382	furcation ten mesial
-0.6064045	bleeding ten mesial
-0.73934895	jump sixteen mesial
-0.37946767	light sixteen mesial
-0.550396	jump fourteen mesial
-0.9727484	jump nineteen mesial
-0.74897856	furcation thirteen mesial
-0.38407633	two thirteen mesial
-1.2826728	<s> jump thirty
-1.2912099	plaque medium thirty
-1.1321888	grade seventeen thirty
-1.4142138	<s> furcation thirty
-1.3373555	margin grade thirty
-0.81358093	mesial grade thirty
-1.3123059	one grade thirty
-1.1805477	all grade thirty
-1.0058577	grade eleven thirty
-1.198761	grade eighteen thirty
-1.5151515	<s> bleeding thirty
-1.6150916	twenty five thirty
-1.3779154	plaque light thirty
-1.360306	plaque severe thirty
-0.42203355	grade ten thirty
-1.095815	grade thirteen thirty
-1.9612035	<s> jump one
-0.56450593	jump thirty one
-0.59925973	medium thirty one
-0.25164786	seventeen thirty one
-0.31493786	furcation thirty one
-0.5559627	grade thirty one
-0.25164786	eleven thirty one
-0.25164786	eighteen thirty one
-0.20044532	bleeding thirty one
-0.18855137	severe thirty one
-0.25164786	thirteen thirty one
-1.7830632	plaque medium one
-1.355494	jump twenty one
-1.0486234	medium twenty one
-0.8263407	six twenty one
-0.5268791	furcation twenty one
-1.0710187	grade twenty one
-0.3838064	eleven twenty one
-0.7483535	fifteen twenty one
-0.96784043	bleeding twenty one
-0.9974709	light twenty one
-0.3838064	nineteen twenty one
-1.6536684	twenty six one
-1.5021005	<s> furcation one
-1.3061674	margin grade one
-0.8885263	one grade one
-1.2012471	distal grade one
-1.0483452	eleven grade one
-1.6462739	<s> bleeding one
-0.41389978	<s> plaque medium
-0.87127113	<s> jump twenty
-1.4142867	thirty one twenty
-1.1023359	twenty one twenty
-1.0685166	grade one twenty
-0.876655	plaque medium twenty
-1.9463542	grade twenty twenty
-1.1811979	twenty six twenty
-0.45449197	grade six twenty
-1.3345493	twenty four twenty
-1.0994874	grade seventeen twenty
-0.8357325	<s> furcation twenty
-0.41220397	margin grade twenty
-0.5690937	mesial grade twenty
-0.40841237	one grade twenty
-0.63784623	twenty grade twenty
-0.53924084	six grade twenty
-0.52637815	all grade twenty
-0.49037415	distal grade twenty
-0.33259007	eight grade twenty
-0.30084413	two grade twenty
-0.41109967	eleven grade twenty
-0.33259007	eighteen grade twenty
-0.33259007	nine grade twenty
-0.41109967	five grade twenty
-0.63784623	seven grade twenty
-0.33259007	ten grade twenty
-0.33259007	thirteen grade twenty
-1.1741953	thirty two twenty
-0.67520255	twenty two twenty
-0.9751063	grade eleven twenty
-0.6191776	grade fifteen twenty
-1.1552784	grade eighteen twenty
-0.7416724	grade twelve twenty
-1.4211011	twenty nine twenty
-1.0911422	grade nine twenty
-0.8746673	<s> bleeding twenty
-1.0983481	grade five twenty
-0.81226444	plaque light twenty
-1.1497025	twenty seven twenty
-0.7876221	plaque severe twenty
-0.9018577	grade nineteen twenty
-1.0561742	grade thirteen twenty
-2.0358768	<s> jump six
-1.7626071	plaque medium six
-0.57519126	jump twenty six
-0.9111511	one twenty six
-1.1697712	medium twenty six
-0.9111511	six twenty six
-1.1381274	furcation twenty six
-1.1341673	grade twenty six
-1.8751721	<s> furcation six
-1.2432195	all grade six
-0.8991632	two grade six
-1.8202399	<s> bleeding six
-1.6653364	plaque light six
-0.9645866	grade seven six
-1.6720681	plaque severe six
-1.1098754	grade thirteen six
-1.1141349	<s> jump all
-1.6571617	jump thirty all
-1.015058	jump one all
-0.7975074	thirty one all
-1.3631045	twenty one all
-0.9847163	plaque medium all
-0.41238624	four twenty all
-1.4366727	furcation twenty all
-1.1243153	two twenty all
-1.3655866	bleeding twenty all
-1.1178648	light twenty all
-0.73346156	twenty six all
-0.61777383	bleeding six all
-0.379695	thirteen six all
-0.5312686	jump four all
-0.80977607	twenty four all
-0.7553202	furcation four all
-0.70541716	grade four all
-0.77696335	jump seventeen all
-0.7520509	medium seventeen all
-0.16938068	light seventeen all
-1.0520643	<s> furcation all
-0.8596671	jump eight all
-1.028301	twenty eight all
-0.658418	jump two all
-1.1344557	thirty two all
-1.0982435	twenty two all
-0.8595402	jump eleven all
-1.1152562	furcation eleven all
-1.0188801	jump fifteen all
-0.40784618	furcation fifteen all
-0.3475763	bleeding fifteen all
-0.6569569	jump eighteen all
-0.98677695	grade eighteen all
-0.8463778	bleeding eighteen all
-1.0194596	twenty three all
-0.54220736	furcation three all
-0.74823284	bleeding three all
-0.8357014	jump twelve all
-0.33040705	one twelve all
-0.5357329	medium twelve all
-0.5357329	furcation twelve all
-1.0739834	jump nine all
-0.889398	twenty nine all
-0.6053516	furcation nine all
-0.78253305	grade nine all
-0.50890696	bleeding nine all
-0.31619623	light nine all
-1.0248766	<s> bleeding all
-0.8014665	jump five all
-0.7764555	twenty five all
-0.58470654	light five all
-0.36027658	nineteen five all
-1.0273622	plaque light all
-0.60532737	jump seven all
-1.1061049	twenty seven all
-0.73356557	furcation seven all
-0.33186382	two seven all
-0.53807265	severe seven all
-1.3015019	plaque severe all
-0.97737014	jump ten all
-0.33766475	two ten all
-0.54743713	twelve ten all
-0.54743713	light ten all
-1.2241998	jump sixteen all
-0.6547496	furcation fourteen all
-0.7386436	jump nineteen all
-0.51800513	furcation nineteen all
-0.66682994	grade nineteen all
-0.6811452	bleeding nineteen all
-0.69972926	jump thirteen all
-0.74897856	furcation thirteen all
-1.9696519	<s> jump four
-1.1287677	jump twenty four
-1.5082408	furcation twenty four
-1.1564568	grade twenty four
-0.6940773	twelve twenty four
-1.0392207	bleeding twenty four
-1.7146674	<s> furcation four
-1.7841866	margin grade four
-1.7161243	mesial grade four
-1.6635921	all grade four
-1.7042962	plaque light four
-0.8398857	grade sixteen four
-1.0933429	<s> jump distal
-0.5329029	jump one distal
-0.71728563	thirty one distal
-0.33523923	medium one distal
-0.9093823	twenty one distal
-0.5329029	furcation one distal
-0.7408384	bleeding one distal
-1.0576968	plaque medium distal
-1.8867116	jump twenty distal
-1.8242557	grade twenty distal
-1.203697	two twenty distal
-0.46965885	jump six distal
-0.3230491	medium six distal
-0.96088415	twenty six distal
-0.5239872	furcation six distal
-0.5239872	bleeding six distal
-0.8460045	jump four distal
-0.45165837	twenty four distal
-0.7568862	furcation four distal
-0.30219498	grade four distal
-0.7680303	jump seventeen distal
-0.64417744	grade seventeen distal
-1.11484	<s> furcation distal
-0.9128412	jump eight distal
-0.27490023	one eight distal
-0.27490023	medium eight distal
-0.958822	twenty eight distal
-0.27490023	two eight distal
-0.27490023	nine eight distal
-0.34170514	bleeding eight distal
-0.80853724	jump two distal
-0.8858736	thirty two distal
-1.2972614	twenty two distal
-0.37430397	eighteen two distal
-0.8149714	jump eleven distal
-0.7222711	furcation eleven distal
-0.7302066	jump fifteen distal
-0.785989	furcation fifteen distal
-0.59162927	grade fifteen distal
-1.0441254	jump eighteen distal
-0.62110084	thirty eighteen distal
-0.9899071	grade eighteen distal
-0.5733968	jump three distal
-0.3558146	medium three distal
-0.98999274	twenty three distal
-0.3558146	eight three distal
-0.5693655	jump twelve distal
-1.0754204	jump nine distal
-0.31682274	medium nine distal
-1.0682015	twenty nine distal
-0.60657173	furcation nine distal
-0.7842317	grade nine distal
-0.54843336	bleeding nine distal
-0.9681622	<s> bleeding distal
-1.209299	jump five distal
-1.1234783	twenty five distal
-0.996212	grade five distal
-1.1390808	plaque light distal
-0.64389807	jump seven distal
-0.33253238	medium seven distal
-0.59208	twenty seven distal
-0.33253238	eighteen seven distal
-0.33253238	bleeding seven distal
-0.8981945	plaque severe distal
-0.7634671	jump ten distal
-0.39264494	six ten distal
-0.59970367	grade sixteen distal
-0.3132848	eleven sixteen distal
-0.3132848	fourteen sixteen distal
-0.3132848	thirteen sixteen distal
-0.78165877	jump fourteen distal
-0.30417198	one fourteen distal
-0.49437594	furcation fourteen distal
-0.50457567	grade fourteen distal
-0.40635937	severe nineteen distal
-0.9403861	jump thirteen distal
-0.7759901	grade thirteen distal
-0.32855725	nine thirteen distal
-0.32855725	light thirteen distal
-1.6856195	<s> jump seventeen
-1.4745467	plaque medium seventeen
-2.122387	<s> furcation seventeen
-1.3166925	margin grade seventeen
-1.547834	mesial grade seventeen
-1.485179	all grade seventeen
-1.1741664	distal grade seventeen
-0.8357571	seven grade seventeen
-1.0239322	grade eleven seventeen
-1.6506503	twenty five seventeen
-1.4026368	plaque light seventeen
-0.97036	grade seven seventeen
-0.9067194	gingival margin grade
-0.7002533	one mesial grade
-0.95701504	six mesial grade
-0.029485943	furcation mesial grade
-0.9458908	two mesial grade
-0.8320763	fifteen mesial grade
-0.5868689	three mesial grade
-0.752895	twelve mesial grade
-0.752895	nine mesial grade
-0.39364994	ten mesial grade
-0.4786635	thirteen mesial grade
-1.1849906	furcation thirty grade
-1.0963618	thirty one grade
-0.77052623	twenty one grade
-0.56044537	furcation one grade
-1.184222	furcation twenty grade
-1.2337458	twenty six grade
-0.7041965	twenty all grade
-0.78337777	four all grade
-0.033311587	furcation all grade
-0.6004021	eleven all grade
-0.37510574	fifteen all grade
-0.32115483	three all grade
-0.6072865	twelve all grade
-0.959469	nine all grade
-0.8503245	seven all grade
-0.26841056	fourteen all grade
-0.6072865	nineteen all grade
-0.6072865	thirteen all grade
-1.2361852	twenty four grade
-0.44847077	furcation four grade
-0.6483599	one distal grade
-0.97385573	six distal grade
-1.0707657	four distal grade
-0.042254485	furcation distal grade
-1.0250083	two distal grade
-0.44921458	eleven distal grade
-0.848917	fifteen distal grade
-0.9158639	nine distal grade
-0.7697358	fourteen distal grade
-0.40901244	furcation seventeen grade
-0.41968626	furcation eight grade
-1.5174938	thirty two grade
-1.1400776	twenty two grade
-0.34665442	furcation eleven grade
-0.4177434	furcation eighteen grade
-1.4165467	twenty three grade
-0.61574	furcation three grade
-0.8408607	furcation nine grade
-1.1359797	twenty five grade
-0.18526275	furcation five grade
-0.41456488	furcation seven grade
-0.8541393	furcation ten grade
-0.6723257	furcation nineteen grade
-0.81225216	furcation thirteen grade
-1.6790161	<s> jump eight
-1.6021329	twenty one eight
-1.7527294	plaque medium eight
-1.3509295	jump twenty eight
-0.38251692	seventeen twenty eight
-0.9897121	grade twenty eight
-1.0012697	two twenty eight
-0.7453742	fifteen twenty eight
-0.38251692	eighteen twenty eight
-0.9642281	bleeding twenty eight
-0.9925893	light twenty eight
-0.62266785	seven twenty eight
-1.0475519	severe twenty eight
-2.0824618	<s> furcation eight
-1.327022	mesial grade eight
-1.6669409	distal grade eight
-1.1154677	grade two eight
-1.2044288	grade nine eight
-1.6321163	<s> bleeding eight
-1.6289676	twenty five eight
-1.6629437	plaque severe eight
-1.608965	<s> jump two
-0.29458722	jump thirty two
-0.37459755	medium thirty two
-0.5709367	furcation thirty two
-0.6500444	grade thirty two
-0.31090593	five thirty two
-0.15026797	light thirty two
-0.31090593	ten thirty two
-1.2307101	grade one two
-1.1112914	jump twenty two
-1.0975406	furcation twenty two
-0.8013677	grade twenty two
-1.1271775	two twenty two
-1.3696814	bleeding twenty two
-0.7757244	severe twenty two
-2.108667	<s> furcation two
-1.3483664	margin grade two
-1.6119853	mesial grade two
-1.1990671	distal grade two
-1.0460224	five grade two
-1.2195781	grade eighteen two
-1.7926857	<s> bleeding two
-1.3786812	plaque severe two
-1.644593	<s> jump eleven
-1.5080584	plaque medium eleven
-1.3624277	<s> furcation eleven
-1.2776561	mesial grade eleven
-1.5527085	all grade eleven
-1.569127	distal grade eleven
-0.85529757	three grade eleven
-1.2195781	grade eighteen eleven
-1.5757629	twenty nine eleven
-2.0558317	<s> bleeding eleven
-1.6747535	plaque light eleven
-1.1146654	grade thirteen eleven
-1.652741	<s> jump fifteen
-2.081395	grade twenty fifteen
-1.7201535	<s> furcation fifteen
-1.3245384	margin grade fifteen
-1.2544234	mesial grade fifteen
-1.5013976	all grade fifteen
-0.84064823	four grade fifteen
-0.84064823	three grade fifteen
-2.1081274	<s> bleeding fifteen
-1.8868005	<s> jump eighteen
-0.92985624	grade thirty eighteen
-1.2307101	grade one eighteen
-1.7727147	plaque medium eighteen
-2.108667	<s> furcation eighteen
-1.4473274	margin grade eighteen
-1.3839061	mesial grade eighteen
-0.39562657	thirty grade eighteen
-1.1782134	one grade eighteen
-1.3146547	all grade eighteen
-0.77622336	four grade eighteen
-1.1000519	distal grade eighteen
-0.77622336	three grade eighteen
-1.6415031	<s> bleeding eighteen
-1.6747535	plaque light eighteen
-1.6813884	plaque severe eighteen
-1.8798076	<s> jump three
-1.7527294	plaque medium three
-1.0552652	jump twenty three
-1.0437418	medium twenty three
-1.0085815	furcation twenty three
-1.1643167	grade twenty three
-1.0012697	two twenty three
-0.62266785	twelve twenty three
-0.62266785	nine twenty three
-0.775142	bleeding twenty three
-0.38251692	five twenty three
-1.0475519	severe twenty three
-1.4921896	<s> furcation three
-1.7308457	all grade three
-1.514718	twenty eight three
-1.1126605	grade fifteen three
-1.2090448	grade eighteen three
-1.7794493	<s> bleeding three
-0.9617285	grade seven three
-1.6629437	plaque severe three
-1.9570401	<s> jump twelve
-1.2307101	grade one twelve
-1.5080584	plaque medium twelve
-1.4074851	twenty four twelve
-1.8831338	<s> furcation twelve
-1.3483664	margin grade twelve
-1.6119853	mesial grade twelve
-1.1912028	all grade twelve
-1.1990671	distal grade twelve
-1.1234795	grade two twelve
-1.5817856	twenty three twelve
-1.0900474	grade fourteen twelve
-1.6878431	<s> jump nine
-1.7936642	plaque medium nine
-1.0028934	jump twenty nine
-1.0785129	medium twenty nine
-0.8479175	six twenty nine
-1.3104851	furcation twenty nine
-0.93676776	grade twenty nine
-1.0354838	two twenty nine
-1.2436184	bleeding twenty nine
-1.0273603	light twenty nine
-0.39147183	thirteen twenty nine
-1.8637804	<s> furcation nine
-1.2480723	margin grade nine
-1.4919508	mesial grade nine
-1.4267504	all grade nine
-1.4630344	distal grade nine
-0.8170581	seven grade nine
-0.41216207	nineteen grade nine
-1.3719695	<s> bleeding nine
-1.6942236	plaque light nine
-1.6790161	<s> jump five
-0.98909026	jump twenty five
-0.82277775	one twenty five
-0.4910791	medium twenty five
-0.82277775	six twenty five
-1.0085815	furcation twenty five
-0.9897121	grade twenty five
-0.62266785	nine twenty five
-0.92876065	bleeding twenty five
-0.9925893	light twenty five
-1.0475519	severe twenty five
-1.8673539	<s> furcation five
-1.3089857	margin grade five
-1.5329127	mesial grade five
-0.8309204	twenty grade five
-1.4695442	all grade five
-1.0130547	five grade five
-0.8763478	grade eight five
-1.2049164	grade twelve five
-1.813138	<s> bleeding five
-1.3876357	plaque light five
-1.5677006	twenty seven five
-1.6629437	plaque severe five
-0.93036115	grade nineteen five
-0.5405979	<s> plaque light
-1.7705985	<s> jump seven
-1.7626071	plaque medium seven
-1.1498657	jump twenty seven
-0.84417385	one twenty seven
-1.0732856	medium twenty seven
-0.9347689	grade twenty seven
-0.6849323	two twenty seven
-0.98592746	bleeding twenty seven
-0.63554317	light twenty seven
-0.63604116	seven twenty seven
-1.0768902	severe twenty seven
-1.693391	<s> furcation seven
-1.8027766	margin grade seven
-1.2432195	all grade seven
-1.1194551	grade two seven
-1.2142795	grade eighteen seven
-1.5697917	twenty nine seven
-2.0436857	<s> bleeding seven
-1.4121581	plaque severe seven
-0.50529367	<s> plaque severe
-1.7679095	<s> jump ten
-0.9739031	grade six ten
-1.1398027	grade seventeen ten
-1.8340802	<s> furcation ten
-1.8478422	margin grade ten
-1.1154677	grade two ten
-0.7552184	grade twelve ten
-1.813138	<s> bleeding ten
-1.6289676	twenty five ten
-1.3876357	plaque light ten
-1.6629437	plaque severe ten
-1.7236063	<s> jump sixteen
-1.6872828	mesial grade sixteen
-1.6337988	distal grade sixteen
-0.43433213	seventeen grade sixteen
-1.0166119	grade eleven sixteen
-1.2142795	grade eighteen sixteen
-1.5755255	twenty three sixteen
-1.7860172	<s> bleeding sixteen
-1.6653364	plaque light sixteen
-1.6720681	plaque severe sixteen
-1.0871328	grade fourteen sixteen
-1.1098754	grade thirteen sixteen
-2.051043	<s> jump fourteen
-1.3854159	grade thirty fourteen
-1.2405211	grade one fourteen
-1.8995087	<s> furcation fourteen
-1.5565082	margin grade fourteen
-1.4919508	mesial grade fourteen
-1.2515421	one grade fourteen
-0.8170581	twenty grade fourteen
-0.6755797	six grade fourteen
-1.4267504	all grade fourteen
-1.2192419	grade twelve fourteen
-2.081193	<s> bleeding fourteen
-2.0459285	<s> jump nineteen
-1.7830632	plaque medium nineteen
-1.891244	<s> furcation nineteen
-1.7692368	margin grade nineteen
-1.316817	mesial grade nineteen
-1.6478751	all grade nineteen
-1.6699693	thirty two nineteen
-1.7994585	<s> bleeding nineteen
-1.6843795	plaque light nineteen
-1.6909131	plaque severe nineteen
-1.7787666	<s> jump thirteen
-1.7936642	plaque medium thirteen
-1.8637804	<s> furcation thirteen
-1.552924	mesial grade thirteen
-1.2902621	one grade thirteen
-0.83738136	four grade thirteen
-1.1305442	distal grade thirteen
-1.0217295	eleven grade thirteen
-1.131642	grade two thirteen
-1.2227237	grade nine thirteen
-1.6942236	plaque light thirteen

\end\
